<?xml version="1.0"?>
<opencv_storage>
<cascade>
  <stageType>BOOST</stageType>
  <featureType>LBP</featureType>
  <height>20</height>
  <width>40</width>
  <stageParams>
    <boostType>GAB</boostType>
    <minHitRate>9.9900001287460327e-01</minHitRate>
    <maxFalseAlarm>5.0000000000000000e-01</maxFalseAlarm>
    <weightTrimRate>9.4999999999999996e-01</weightTrimRate>
    <maxDepth>1</maxDepth>
    <maxWeakCount>100</maxWeakCount></stageParams>
  <featureParams>
    <maxCatCount>256</maxCatCount>
    <featSize>1</featSize></featureParams>
  <stageNum>20</stageNum>
  <stages>
    <!-- stage 0 -->
    <_>
      <maxWeakCount>3</maxWeakCount>
      <stageThreshold>-1.0733789205551147e+00</stageThreshold>
      <weakClassifiers>
        <_>
          <internalNodes>
            0 -1 45 -170789381 -778833189 -989130421 -170802977
            -531246853 1906950343 1096023003 -235405377</internalNodes>
          <leafValues>
            -8.9303731918334961e-01 8.4672433137893677e-01</leafValues></_>
        <_>
          <internalNodes>
            0 -1 49 1901196795 -787295789 1963020683 -216411653
            1361311999 -238370685 -503734293 -235147073</internalNodes>
          <leafValues>
            -8.6929875612258911e-01 7.4133729934692383e-01</leafValues></_>
        <_>
          <internalNodes>
            0 -1 20 -116918518 -574622261 -251149998 -617613561
            -117189701 -1314422586 -317723717 -8388721</internalNodes>
          <leafValues>
            -8.3710616827011108e-01 6.8895715475082397e-01</leafValues></_></weakClassifiers></_>
    <!-- stage 1 -->
    <_>
      <maxWeakCount>4</maxWeakCount>
      <stageThreshold>-1.8848470449447632e+00</stageThreshold>
      <weakClassifiers>
        <_>
          <internalNodes>
            0 -1 48 -246284801 -137106721 -170723041 -1583233 -171776801
            -443049749 -247857409 -168304705</internalNodes>
          <leafValues>
            -8.3783781528472900e-01 6.5714287757873535e-01</leafValues></_>
        <_>
          <internalNodes>
            0 -1 16 -215500886 -202400383 2051462440 -608227115
            -1324180017 -1165911862 -202441798 -50</internalNodes>
          <leafValues>
            -8.7327724695205688e-01 5.2552318572998047e-01</leafValues></_>
        <_>
          <internalNodes>
            0 -1 55 -33685505 2146509143 1230102431 -1249779325
            -661589250 -119226213 -2000565797 -641363493</internalNodes>
          <leafValues>
            -6.8575775623321533e-01 6.5129303932189941e-01</leafValues></_>
        <_>
          <internalNodes>
            0 -1 62 -247472129 -649030153 293962719 -785267221
            -1341930497 -794648421 1369680271 286520271</internalNodes>
          <leafValues>
            -9.0928792953491211e-01 5.1202583312988281e-01</leafValues></_></weakClassifiers></_>
    <!-- stage 2 -->
    <_>
      <maxWeakCount>4</maxWeakCount>
      <stageThreshold>-1.7878197431564331e+00</stageThreshold>
      <weakClassifiers>
        <_>
          <internalNodes>
            0 -1 21 -642261046 -752897778 294059840 -39846281
            -1865708577 -2071603737 -774974790 -5</internalNodes>
          <leafValues>
            -8.4184914827346802e-01 5.0306749343872070e-01</leafValues></_>
        <_>
          <internalNodes>
            0 -1 38 -706348033 -148637763 -687563283 -785305153
            -993052485 -1282426646 -168039493 -243797845</internalNodes>
          <leafValues>
            -8.0529522895812988e-01 5.3148597478866577e-01</leafValues></_>
        <_>
          <internalNodes>
            0 -1 14 823193720 -1151084013 419548159 -103295618
            -1516544834 -7401207 -1826361361 -20485</internalNodes>
          <leafValues>
            -7.6910114288330078e-01 5.3558009862899780e-01</leafValues></_>
        <_>
          <internalNodes>
            0 -1 18 -620592227 -569372672 271586203 -167522267
            -1065317957 -1077903343 -1450605857 1491634330</internalNodes>
          <leafValues>
            -7.0835542678833008e-01 5.3843462467193604e-01</leafValues></_></weakClassifiers></_>
    <!-- stage 3 -->
    <_>
      <maxWeakCount>5</maxWeakCount>
      <stageThreshold>-9.9501240253448486e-01</stageThreshold>
      <weakClassifiers>
        <_>
          <internalNodes>
            0 -1 35 1909543409 -573475217 -1557954097 -7489441
            -1616148081 -305489685 -183827281 -1074012193</internalNodes>
          <leafValues>
            -7.0636552572250366e-01 5.9079903364181519e-01</leafValues></_>
        <_>
          <internalNodes>
            0 -1 84 -770515201 874180847 -733939492 -1159136546
            1929510043 -1101086545 -1815948897 -1412518148</internalNodes>
          <leafValues>
            -8.0355304479598999e-01 4.2868548631668091e-01</leafValues></_>
        <_>
          <internalNodes>
            0 -1 29 -1069526785 -50329592 9437405 -1140191211
            -1979154213 -82212695 -2071426885 -1374140195</internalNodes>
          <leafValues>
            -5.9646683931350708e-01 6.4591348171234131e-01</leafValues></_>
        <_>
          <internalNodes>
            0 -1 31 1966471645 -676256431 1971714481 1976683313
            -1824268152 -1171351381 -2120904545 -201914881</internalNodes>
          <leafValues>
            -7.1261423826217651e-01 5.5809861421585083e-01</leafValues></_>
        <_>
          <internalNodes>
            0 -1 99 -490559746 -233799662 -1736435107 462426192
            -2113363816 -115867646 -2096983909 -1884616037</internalNodes>
          <leafValues>
            -6.5063160657882690e-01 6.1253213882446289e-01</leafValues></_></weakClassifiers></_>
    <!-- stage 4 -->
    <_>
      <maxWeakCount>5</maxWeakCount>
      <stageThreshold>-1.0582655668258667e+00</stageThreshold>
      <weakClassifiers>
        <_>
          <internalNodes>
            0 -1 56 1894956543 -175920881 -1583141075 -976253633
            -980485697 -1356076881 -1347695921 -173020209</internalNodes>
          <leafValues>
            -7.0402610301971436e-01 5.0737798213958740e-01</leafValues></_>
        <_>
          <internalNodes>
            0 -1 8 -264220161 -553091029 268737119 520659129 -1409500677
            -1345683303 2089532155 -1143225985</internalNodes>
          <leafValues>
            -6.1323499679565430e-01 6.0522377490997314e-01</leafValues></_>
        <_>
          <internalNodes>
            0 -1 88 -624700278 289472520 285213912 1360265216 -234119030
            404883457 -1870085910 -540319592</internalNodes>
          <leafValues>
            -5.8518207073211670e-01 6.2059444189071655e-01</leafValues></_>
        <_>
          <internalNodes>
            0 -1 2 -1392059480 152023426 -1156379619 -170433037
            -592856321 -340327797 -1817446501 -82115905</internalNodes>
          <leafValues>
            -8.2556974887847900e-01 4.5262348651885986e-01</leafValues></_>
        <_>
          <internalNodes>
            0 -1 87 -460426597 1858732225 -2046816235 -1570461486
            -98463077 -70942567 -1693986469 -1074077014</internalNodes>
          <leafValues>
            -7.5448793172836304e-01 4.9610504508018494e-01</leafValues></_></weakClassifiers></_>
    <!-- stage 5 -->
    <_>
      <maxWeakCount>5</maxWeakCount>
      <stageThreshold>-9.1718256473541260e-01</stageThreshold>
      <weakClassifiers>
        <_>
          <internalNodes>
            0 -1 55 -1626736961 -1623358017 -1917476883 -1244560989
            -1333709734 -43514261 -729293889 -708447813</internalNodes>
          <leafValues>
            -7.6249998807907104e-01 4.0999999642372131e-01</leafValues></_>
        <_>
          <internalNodes>
            0 -1 76 -941169938 -134287738 -402723090 1416756800
            -1412455174 75531456 -134226485 -879759397</internalNodes>
          <leafValues>
            -5.1371741294860840e-01 6.7581760883331299e-01</leafValues></_>
        <_>
          <internalNodes>
            0 -1 15 -559168774 -257689157 692203292 -183649985 601087967
            -987633217 1339069422 -419451106</internalNodes>
          <leafValues>
            -7.5973194837570190e-01 4.7267577052116394e-01</leafValues></_>
        <_>
          <internalNodes>
            0 -1 61 1894443983 -138271602 -1190942305 1368933063
            -980703285 -181952438 -1853574237 -236281689</internalNodes>
          <leafValues>
            -7.0249593257904053e-01 4.7982257604598999e-01</leafValues></_>
        <_>
          <internalNodes>
            0 -1 79 -487331077 -215240872 -521359652 -792458176
            -604054296 276903424 -353715286 -1684090742</internalNodes>
          <leafValues>
            -5.3355580568313599e-01 6.8744814395904541e-01</leafValues></_></weakClassifiers></_>
    <!-- stage 6 -->
    <_>
      <maxWeakCount>5</maxWeakCount>
      <stageThreshold>-8.2584947347640991e-01</stageThreshold>
      <weakClassifiers>
        <_>
          <internalNodes>
            0 -1 46 -168757773 -1081897445 908564431 -1111101489
            294540799 -1347755165 -1481929845 -269506901</internalNodes>
          <leafValues>
            -6.2079513072967529e-01 4.9938949942588806e-01</leafValues></_>
        <_>
          <internalNodes>
            0 -1 93 -69220648 -541641558 -1078699531 1398480363
            -196807430 -25230642 17073368 -16039750</internalNodes>
          <leafValues>
            -4.7300359606742859e-01 6.9473385810852051e-01</leafValues></_>
        <_>
          <internalNodes>
            0 -1 23 862686195 463030225 -1610018027 2005949281
            2068812043 -7143257 516146091 1955980227</internalNodes>
          <leafValues>
            -7.7580004930496216e-01 4.6252536773681641e-01</leafValues></_>
        <_>
          <internalNodes>
            0 -1 0 138944985 2064993683 1195805715 1062538001
            -1155544077 -1089957190 -1950574789 -1687172901</internalNodes>
          <leafValues>
            -6.8648797273635864e-01 4.7744691371917725e-01</leafValues></_>
        <_>
          <internalNodes>
            0 -1 19 1356718333 -872095197 1618403583 -1380089683
            -933701953 -617035545 2004876031 -295862084</internalNodes>
          <leafValues>
            -5.5388230085372925e-01 6.8277835845947266e-01</leafValues></_></weakClassifiers></_>
    <!-- stage 7 -->
    <_>
      <maxWeakCount>5</maxWeakCount>
      <stageThreshold>-1.0995180606842041e+00</stageThreshold>
      <weakClassifiers>
        <_>
          <internalNodes>
            0 -1 91 -236979540 -77789184 286294042 -690190200 -500129768
            -637534208 -251613040 -15171560</internalNodes>
          <leafValues>
            -7.1156138181686401e-01 4.1311132907867432e-01</leafValues></_>
        <_>
          <internalNodes>
            0 -1 95 -258813798 -234716032 17842323 1359954057 587833482
            0 37018 1598750750</internalNodes>
          <leafValues>
            -6.9360506534576416e-01 4.6191909909248352e-01</leafValues></_>
        <_>
          <internalNodes>
            0 -1 65 -23680418 -132967600 1611318868 -1281480940
            -142261719 2070675775 -145256865 -1086328851</internalNodes>
          <leafValues>
            -8.0747878551483154e-01 3.7895503640174866e-01</leafValues></_>
        <_>
          <internalNodes>
            0 -1 39 1704836827 2131361930 -771748591 457345050
            -1207240039 -334880118 -401035733 2067071114</internalNodes>
          <leafValues>
            -6.3409107923507690e-01 5.2903068065643311e-01</leafValues></_>
        <_>
          <internalNodes>
            0 -1 47 -173433607 -1130197336 1026464919 117651313 -67651
            -294649988 1862799099 -2018570630</internalNodes>
          <leafValues>
            -5.3297859430313110e-01 6.4734417200088501e-01</leafValues></_></weakClassifiers></_>
    <!-- stage 8 -->
    <_>
      <maxWeakCount>6</maxWeakCount>
      <stageThreshold>-1.3536739349365234e+00</stageThreshold>
      <weakClassifiers>
        <_>
          <internalNodes>
            0 -1 81 -769 -658907700 -336057860 67110432 -1671504255
            -1995639832 -1678061878 -745830693</internalNodes>
          <leafValues>
            -5.1796668767929077e-01 5.9332323074340820e-01</leafValues></_>
        <_>
          <internalNodes>
            0 -1 59 1003092699 1117110937 112432455 268817049 1343271771
            1537802817 2070727179 1408613115</internalNodes>
          <leafValues>
            -7.8909987211227417e-01 3.8523095846176147e-01</leafValues></_>
        <_>
          <internalNodes>
            0 -1 50 1355814455 -753847275 492657939 -143584795 947513504
            -1087438065 -1041454913 -35290953</internalNodes>
          <leafValues>
            -6.0993492603302002e-01 5.1074492931365967e-01</leafValues></_>
        <_>
          <internalNodes>
            0 -1 86 -739519034 290848834 34603008 1371570560 -1735876152
            939556864 -1962375650 1338671242</internalNodes>
          <leafValues>
            -7.5598973035812378e-01 4.6432697772979736e-01</leafValues></_>
        <_>
          <internalNodes>
            0 -1 33 -795813832 -42791772 -1778601737 -549997452
            -1359026946 -84101553 777707263 -1656159875</internalNodes>
          <leafValues>
            -5.3529328107833862e-01 6.0487985610961914e-01</leafValues></_>
        <_>
          <internalNodes>
            0 -1 108 -215287078 -1623459743 1878458239 826808657
            -1627604338 -1904227052 186185375 -1216378724</internalNodes>
          <leafValues>
            -4.7699603438377380e-01 7.1806365251541138e-01</leafValues></_></weakClassifiers></_>
    <!-- stage 9 -->
    <_>
      <maxWeakCount>6</maxWeakCount>
      <stageThreshold>-1.6119358539581299e+00</stageThreshold>
      <weakClassifiers>
        <_>
          <internalNodes>
            0 -1 17 535237624 -176298834 789906832 -1094770370 297861279
            -2101342274 -1734408483 2029705951</internalNodes>
          <leafValues>
            -7.6954734325408936e-01 3.3706817030906677e-01</leafValues></_>
        <_>
          <internalNodes>
            0 -1 102 -1860562342 -36511716 352452809 1998291205
            -2111655256 -1177354236 436736171 -1684339510</internalNodes>
          <leafValues>
            -5.7815539836883545e-01 5.2068006992340088e-01</leafValues></_>
        <_>
          <internalNodes>
            0 -1 42 1709270511 568567306 -1680041793 -974056819
            808401130 -1246025566 -1797248977 32958127</internalNodes>
          <leafValues>
            -8.1513231992721558e-01 3.8185214996337891e-01</leafValues></_>
        <_>
          <internalNodes>
            0 -1 105 318771280 286261336 293618779 1427444995
            -2013265400 -1744629632 -1879017253 -1693838881</internalNodes>
          <leafValues>
            -5.9695476293563843e-01 5.3786993026733398e-01</leafValues></_>
        <_>
          <internalNodes>
            0 -1 88 -754728213 1373700416 66176 1402310784 -796688212
            805306904 -435451510 -135597366</internalNodes>
          <leafValues>
            -5.3156805038452148e-01 6.4158684015274048e-01</leafValues></_>
        <_>
          <internalNodes>
            0 -1 103 -15693582 -239533935 1375781235 -753777659
            -1877292926 -637497214 679551147 463016496</internalNodes>
          <leafValues>
            -6.2417793273925781e-01 5.4073029756546021e-01</leafValues></_></weakClassifiers></_>
    <!-- stage 10 -->
    <_>
      <maxWeakCount>5</maxWeakCount>
      <stageThreshold>-9.3010115623474121e-01</stageThreshold>
      <weakClassifiers>
        <_>
          <internalNodes>
            0 -1 90 -217582966 1399783424 84295873 1350877252 -74210814
            -1811939072 -251534196 -605228912</internalNodes>
          <leafValues>
            -7.2439950704574585e-01 3.6967295408248901e-01</leafValues></_>
        <_>
          <internalNodes>
            0 -1 5 288420863 1968718619 293699989 1038090243 -679772021
            -547848063 -1309245437 -1141185893</internalNodes>
          <leafValues>
            -6.6661393642425537e-01 4.4768616557121277e-01</leafValues></_>
        <_>
          <internalNodes>
            0 -1 52 -629024353 -572190393 -1241475041 2112849680
            545325819 -995917694 671275162 1285228715</internalNodes>
          <leafValues>
            -5.8849972486495972e-01 5.0503230094909668e-01</leafValues></_>
        <_>
          <internalNodes>
            0 -1 78 -688989953 2109498325 -158927113 244056319
            -1109341360 -805306944 -1557081133 -1450311431</internalNodes>
          <leafValues>
            -5.3899353742599487e-01 5.6493335962295532e-01</leafValues></_>
        <_>
          <internalNodes>
            0 -1 26 -599752486 -109019054 -2130697911 -581201915
            1639551401 -1165492096 167805355 323551369</internalNodes>
          <leafValues>
            -5.9919893741607666e-01 5.3588920831680298e-01</leafValues></_></weakClassifiers></_>
    <!-- stage 11 -->
    <_>
      <maxWeakCount>5</maxWeakCount>
      <stageThreshold>-9.1610378026962280e-01</stageThreshold>
      <weakClassifiers>
        <_>
          <internalNodes>
            0 -1 43 -1874338740 -1521909121 338002056 -922943457
            -1024352102 -129400820 -1172069793 -9467265</internalNodes>
          <leafValues>
            -7.3635154962539673e-01 3.3651095628738403e-01</leafValues></_>
        <_>
          <internalNodes>
            0 -1 74 -5273970 -319512342 -1079006257 -771935776
            -402922086 -2067593502 -237920261 -1042611717</internalNodes>
          <leafValues>
            -5.0841611623764038e-01 6.4001762866973877e-01</leafValues></_>
        <_>
          <internalNodes>
            0 -1 53 -597779236 -1287936582 86508981 -1146892194
            -1341777507 -1190977503 831161990 -71625583</internalNodes>
          <leafValues>
            -7.1539443731307983e-01 4.1689682006835938e-01</leafValues></_>
        <_>
          <internalNodes>
            0 -1 54 1646482426 -908639671 135450154 -778878965
            -1266483189 -2122087510 -2063399029 -2088548600</internalNodes>
          <leafValues>
            -6.7465585470199585e-01 4.5739710330963135e-01</leafValues></_>
        <_>
          <internalNodes>
            0 -1 100 -80613126 -114036681 -1595149 2067248553
            -1886986807 -1208091268 187815883 -1890973579</internalNodes>
          <leafValues>
            -4.8620125651359558e-01 6.8685406446456909e-01</leafValues></_></weakClassifiers></_>
    <!-- stage 12 -->
    <_>
      <maxWeakCount>7</maxWeakCount>
      <stageThreshold>-8.5517531633377075e-01</stageThreshold>
      <weakClassifiers>
        <_>
          <internalNodes>
            0 -1 96 -62987596 -233397168 -1141604745 -45243309
            -720586278 1778386960 356548295 -82896838</internalNodes>
          <leafValues>
            -5.2064633369445801e-01 5.5393588542938232e-01</leafValues></_>
        <_>
          <internalNodes>
            0 -1 6 78169935 925193485 -1340503981 962380733 -1623662243
            835584064 444599354 -1367562579</internalNodes>
          <leafValues>
            -6.8992817401885986e-01 4.1204339265823364e-01</leafValues></_>
        <_>
          <internalNodes>
            0 -1 70 -255662433 -1802551034 -2145910777 9597138
            -2133245817 -993816541 -385872467 -186129018</internalNodes>
          <leafValues>
            -6.5754824876785278e-01 4.4599241018295288e-01</leafValues></_>
        <_>
          <internalNodes>
            0 -1 37 603133173 -4626582 814098381 -1347643827 -1174058095
            -1367233911 -2037896018 -272080572</internalNodes>
          <leafValues>
            -5.7365614175796509e-01 5.8368271589279175e-01</leafValues></_>
        <_>
          <internalNodes>
            0 -1 107 -203730480 925581072 854553685 -1820985515
            -211026806 -1631592532 373152411 -1891664103</internalNodes>
          <leafValues>
            -5.3009784221649170e-01 6.1606454849243164e-01</leafValues></_>
        <_>
          <internalNodes>
            0 -1 27 -286769929 -1564758292 678849791 1863420683
            1988026107 -1077486969 2020798207 -90617915</internalNodes>
          <leafValues>
            -5.1859790086746216e-01 6.4098829030990601e-01</leafValues></_>
        <_>
          <internalNodes>
            0 -1 28 1527268305 -649051382 322978333 -1149664241
            -1694488141 -116391928 -2130170485 1021949995</internalNodes>
          <leafValues>
            -6.4479506015777588e-01 5.3925335407257080e-01</leafValues></_></weakClassifiers></_>
    <!-- stage 13 -->
    <_>
      <maxWeakCount>8</maxWeakCount>
      <stageThreshold>-1.3071258068084717e+00</stageThreshold>
      <weakClassifiers>
        <_>
          <internalNodes>
            0 -1 92 -541599023 -162049 2135811212 2103395397 -1863059977
            -83442672 -673594275 -15772664</internalNodes>
          <leafValues>
            -4.9521324038505554e-01 5.6682026386260986e-01</leafValues></_>
        <_>
          <internalNodes>
            0 -1 66 -165731011 -1442496097 209856287 1881058443
            -1149259893 293667147 -1467643125 -795646466</internalNodes>
          <leafValues>
            -6.6269552707672119e-01 4.3113061785697937e-01</leafValues></_>
        <_>
          <internalNodes>
            0 -1 76 -1286962518 -729382773 -1073086424 1410498689
            -1559254806 67141632 -1282698261 1183810186</internalNodes>
          <leafValues>
            -6.3181924819946289e-01 4.1938367486000061e-01</leafValues></_>
        <_>
          <internalNodes>
            0 -1 57 1996248597 974816437 1577910669 2104339797 -88394682
            1935753236 2080421911 2080217149</internalNodes>
          <leafValues>
            -5.8836567401885986e-01 5.4318648576736450e-01</leafValues></_>
        <_>
          <internalNodes>
            0 -1 63 -77007106 -1902068034 993324588 829530150 -241698904
            2138243069 968145338 -1146635734</internalNodes>
          <leafValues>
            -4.9495491385459900e-01 6.2372940778732300e-01</leafValues></_>
        <_>
          <internalNodes>
            0 -1 89 -1818823205 269283329 84017427 164163871 1912758545
            -1173223424 -543602609 1034877726</internalNodes>
          <leafValues>
            -7.2306793928146362e-01 4.5906370878219604e-01</leafValues></_>
        <_>
          <internalNodes>
            0 -1 80 1343787859 -939257782 272634011 1357914241 168993179
            -878181158 167910025 -547749751</internalNodes>
          <leafValues>
            -5.7103502750396729e-01 5.6908816099166870e-01</leafValues></_>
        <_>
          <internalNodes>
            0 -1 40 -237939971 -209087515 200532991 1798108049
            1079177983 -13545442 -486640641 -271649377</internalNodes>
          <leafValues>
            -4.6713498234748840e-01 7.3674547672271729e-01</leafValues></_></weakClassifiers></_>
    <!-- stage 14 -->
    <_>
      <maxWeakCount>7</maxWeakCount>
      <stageThreshold>-1.1063561439514160e+00</stageThreshold>
      <weakClassifiers>
        <_>
          <internalNodes>
            0 -1 44 -652912657 -1900416 345005149 494994757 625110184
            -721089773 321265035 730271744</internalNodes>
          <leafValues>
            -5.9741657972335815e-01 4.0757748484611511e-01</leafValues></_>
        <_>
          <internalNodes>
            0 -1 4 1486340475 -741737648 822983368 2071044424
            -1790735475 461865067 -870778738 2055059119</internalNodes>
          <leafValues>
            -5.6781309843063354e-01 4.8585540056228638e-01</leafValues></_>
        <_>
          <internalNodes>
            0 -1 36 1430630513 -1477433181 627187855 1736661387
            615081119 1344487683 598378771 1978136979</internalNodes>
          <leafValues>
            -7.4603587388992310e-01 3.6179193854331970e-01</leafValues></_>
        <_>
          <internalNodes>
            0 -1 77 -1878866794 -754546997 285221444 134906506
            -1068770678 557056 1124500110 -766797176</internalNodes>
          <leafValues>
            -5.1842820644378662e-01 5.7609188556671143e-01</leafValues></_>
        <_>
          <internalNodes>
            0 -1 106 -180824878 -684987330 1970025085 293302807
            -1648834168 -1275275629 -1461659991 -625467137</internalNodes>
          <leafValues>
            -4.7750073671340942e-01 6.1645203828811646e-01</leafValues></_>
        <_>
          <internalNodes>
            0 -1 71 -217390364 1429307536 -1996193776 356565018
            -519532487 -998162278 1644900747 387027362</internalNodes>
          <leafValues>
            -7.0138633251190186e-01 4.3624082207679749e-01</leafValues></_>
        <_>
          <internalNodes>
            0 -1 83 -62457322 1541017856 -1609759737 -863207422
            705528387 -1067417597 -939282047 -200361846</internalNodes>
          <leafValues>
            -7.0511734485626221e-01 4.4990152120590210e-01</leafValues></_></weakClassifiers></_>
    <!-- stage 15 -->
    <_>
      <maxWeakCount>7</maxWeakCount>
      <stageThreshold>-1.2052429914474487e+00</stageThreshold>
      <weakClassifiers>
        <_>
          <internalNodes>
            0 -1 3 -239389718 1401525000 679215474 -35950311 1519296646
            1353517295 -2035415625 -872706439</internalNodes>
          <leafValues>
            -7.7286136150360107e-01 2.8877004981040955e-01</leafValues></_>
        <_>
          <internalNodes>
            0 -1 64 1658759226 -231625559 -736115101 -142356985
            1634708527 -351071435 -987489493 1973675139</internalNodes>
          <leafValues>
            -7.3061287403106689e-01 3.3043062686920166e-01</leafValues></_>
        <_>
          <internalNodes>
            0 -1 11 1889318418 -682618816 138417269 -50179827 -994422357
            -888658822 -2145384200 -888659391</internalNodes>
          <leafValues>
            -5.3064173460006714e-01 5.1265758275985718e-01</leafValues></_>
        <_>
          <internalNodes>
            0 -1 32 -1176018727 -539818183 -1047155328 1968298921
            -1221979320 -1935496475 1912621618 1554984591</internalNodes>
          <leafValues>
            -6.1305671930313110e-01 4.8035550117492676e-01</leafValues></_>
        <_>
          <internalNodes>
            0 -1 94 -687689264 -641679156 16777692 1359184915
            -1840338776 1896480770 67152011 -548469666</internalNodes>
          <leafValues>
            -4.7262194752693176e-01 5.9934377670288086e-01</leafValues></_>
        <_>
          <internalNodes>
            0 -1 101 -762955022 -750583538 1372209242 356732433
            -1417637712 -1195868024 1527367863 1610549400</internalNodes>
          <leafValues>
            -5.8586519956588745e-01 5.0167769193649292e-01</leafValues></_>
        <_>
          <internalNodes>
            0 -1 73 -958520681 -12220415 1074335745 -863361339
            1888143387 -1200783355 -200834033 -1998523995</internalNodes>
          <leafValues>
            -6.6555738449096680e-01 4.8153728246688843e-01</leafValues></_></weakClassifiers></_>
    <!-- stage 16 -->
    <_>
      <maxWeakCount>6</maxWeakCount>
      <stageThreshold>-6.1932164430618286e-01</stageThreshold>
      <weakClassifiers>
        <_>
          <internalNodes>
            0 -1 1 1890220250 864523659 -1726761717 -1985654525
            -893691701 -1353514353 -1827994805 -1073822837</internalNodes>
          <leafValues>
            -6.7892158031463623e-01 3.5975611209869385e-01</leafValues></_>
        <_>
          <internalNodes>
            0 -1 104 -774868776 -616497016 17304995 -249753339
            -1441746260 -1736425438 2161050 -1415901016</internalNodes>
          <leafValues>
            -5.3919154405593872e-01 4.8993277549743652e-01</leafValues></_>
        <_>
          <internalNodes>
            0 -1 60 -1831093933 -674323883 1074594000 1138198728
            -1993666047 -1065073374 195998465 317434827</internalNodes>
          <leafValues>
            -6.8518275022506714e-01 3.9790332317352295e-01</leafValues></_>
        <_>
          <internalNodes>
            0 -1 12 285311338 -951967240 71322003 -578701920 -1862203141
            950997211 -1518270033 1995036937</internalNodes>
          <leafValues>
            -6.2020951509475708e-01 4.4768878817558289e-01</leafValues></_>
        <_>
          <internalNodes>
            0 -1 69 1425945245 93487370 109062447 -800161001 -801151831
            -1601230840 -519428680 -52977498</internalNodes>
          <leafValues>
            -6.5527760982513428e-01 4.1249608993530273e-01</leafValues></_>
        <_>
          <internalNodes>
            0 -1 51 656669389 -708770063 285375381 -774692830
            -1272279784 -1960705702 -1338788759 1814131630</internalNodes>
          <leafValues>
            -5.7611435651779175e-01 5.1288729906082153e-01</leafValues></_></weakClassifiers></_>
    <!-- stage 17 -->
    <_>
      <maxWeakCount>7</maxWeakCount>
      <stageThreshold>-9.8181939125061035e-01</stageThreshold>
      <weakClassifiers>
        <_>
          <internalNodes>
            0 -1 10 1509547473 1394694016 -224852269 -780815085
            1792065679 1242086293 681386167 1022963221</internalNodes>
          <leafValues>
            -6.9072163105010986e-01 3.2812500000000000e-01</leafValues></_>
        <_>
          <internalNodes>
            0 -1 81 -77 -592388660 184084701 1050280 -1939878766
            1003353064 -1711681846 -604000278</internalNodes>
          <leafValues>
            -4.2825311422348022e-01 6.2045556306838989e-01</leafValues></_>
        <_>
          <internalNodes>
            0 -1 13 1405358825 -645398454 -852894467 -553111123 573661
            -124771832 268519641 524832774</internalNodes>
          <leafValues>
            -5.4300767183303833e-01 4.9608457088470459e-01</leafValues></_>
        <_>
          <internalNodes>
            0 -1 67 -1033010209 -1258208119 1459880211 -711652944
            1493206035 3147312 2048098787 238133683</internalNodes>
          <leafValues>
            -7.2084814310073853e-01 3.7218052148818970e-01</leafValues></_>
        <_>
          <internalNodes>
            0 -1 25 -880001136 -1659631567 -618492488 -142239085
            2024835232 2130503701 1963415837 1983238300</internalNodes>
          <leafValues>
            -7.4645978212356567e-01 3.5798048973083496e-01</leafValues></_>
        <_>
          <internalNodes>
            0 -1 82 2129116633 -560436080 -1132988079 1543644189
            -1098582630 -694885183 -2130591906 -74941298</internalNodes>
          <leafValues>
            -4.8014500737190247e-01 6.4075702428817749e-01</leafValues></_>
        <_>
          <internalNodes>
            0 -1 34 899852392 -36874128 -1102131239 -39577865
            -1901294337 -1166064680 431574491 1393534171</internalNodes>
          <leafValues>
            -5.2335160970687866e-01 5.5453878641128540e-01</leafValues></_></weakClassifiers></_>
    <!-- stage 18 -->
    <_>
      <maxWeakCount>7</maxWeakCount>
      <stageThreshold>-9.3861538171768188e-01</stageThreshold>
      <weakClassifiers>
        <_>
          <internalNodes>
            0 -1 75 -82069057 -723713189 1073841997 -255557497
            -1440631809 -728760139 -83852407 -1197358893</internalNodes>
          <leafValues>
            -5.7810944318771362e-01 4.7924527525901794e-01</leafValues></_>
        <_>
          <internalNodes>
            0 -1 30 740144010 -1049263273 -2134695593 -1604779941
            -1426402561 -521207573 -2140961065 -1088716577</internalNodes>
          <leafValues>
            -7.4672615528106689e-01 3.2772216200828552e-01</leafValues></_>
        <_>
          <internalNodes>
            0 -1 98 -967392610 -754941374 1610874899 -687320826
            -1574645037 -771162112 -1064781173 185303243</internalNodes>
          <leafValues>
            -6.4569026231765747e-01 3.9992755651473999e-01</leafValues></_>
        <_>
          <internalNodes>
            0 -1 24 -1684359048 -180285376 -1810838253 894013464
            -1978672760 -1340600184 -1475595873 454469788</internalNodes>
          <leafValues>
            -5.6752437353134155e-01 5.0139993429183960e-01</leafValues></_>
        <_>
          <internalNodes>
            0 -1 92 -706225935 2147209215 2135749773 1969046780 -9241121
            -109296622 -699306915 -3578739</internalNodes>
          <leafValues>
            -4.7991263866424561e-01 6.0461211204528809e-01</leafValues></_>
        <_>
          <internalNodes>
            0 -1 7 -1726901677 1805093033 1976609426 -71726687
            -268398161 1250263322 -426231557 448653371</internalNodes>
          <leafValues>
            -5.7896143198013306e-01 5.1017880439758301e-01</leafValues></_>
        <_>
          <internalNodes>
            0 -1 9 -2039564801 2015403121 402386666 1059577853 -25170305
            -1358975812 -721518626 -1347872468</internalNodes>
          <leafValues>
            -5.1911199092864990e-01 5.8116537332534790e-01</leafValues></_></weakClassifiers></_>
    <!-- stage 19 -->
    <_>
      <maxWeakCount>7</maxWeakCount>
      <stageThreshold>-9.6975642442703247e-01</stageThreshold>
      <weakClassifiers>
        <_>
          <internalNodes>
            0 -1 85 2052477047 244712471 916717569 780180062 -1324154607
            -641676413 2144145797 -1365619748</internalNodes>
          <leafValues>
            -8.0398672819137573e-01 2.3706176877021790e-01</leafValues></_>
        <_>
          <internalNodes>
            0 -1 22 849895101 1494220802 1275118292 724041930 1533590531
            -391214717 1056652015 1526943631</internalNodes>
          <leafValues>
            -6.8521058559417725e-01 3.2771664857864380e-01</leafValues></_>
        <_>
          <internalNodes>
            0 -1 68 -1107311804 -2006925778 -50348133 268442809
            -1654737946 -1964462416 -566821133 -1701888293</internalNodes>
          <leafValues>
            -4.0588691830635071e-01 6.7590463161468506e-01</leafValues></_>
        <_>
          <internalNodes>
            0 -1 97 -166530408 -575640838 860243699 357302894 1474621177
            -34222622 1240546541 -666320151</internalNodes>
          <leafValues>
            -4.5026445388793945e-01 6.0208135843276978e-01</leafValues></_>
        <_>
          <internalNodes>
            0 -1 41 -782036607 -282351063 -1805341782 -1483831915
            222953871 -1431795187 -1475894515 -173072791</internalNodes>
          <leafValues>
            -6.5813797712326050e-01 4.3274179100990295e-01</leafValues></_>
        <_>
          <internalNodes>
            0 -1 58 -168428033 -918273 -917789 1977741555 -51520314
            -535321 -52102162 -809154049</internalNodes>
          <leafValues>
            -4.8878669738769531e-01 5.8043742179870605e-01</leafValues></_>
        <_>
          <internalNodes>
            0 -1 72 -736027976 -615370544 33554711 1352442121
            -1853709919 -205520891 -897482093 -1673155934</internalNodes>
          <leafValues>
            -5.8380454778671265e-01 5.2705794572830200e-01</leafValues></_></weakClassifiers></_></stages>
  <features>
    <_>
      <rect>
        0 0 6 5</rect></_>
    <_>
      <rect>
        0 0 11 6</rect></_>
    <_>
      <rect>
        0 4 9 3</rect></_>
    <_>
      <rect>
        0 4 9 4</rect></_>
    <_>
      <rect>
        0 5 13 5</rect></_>
    <_>
      <rect>
        2 0 5 6</rect></_>
    <_>
      <rect>
        2 4 5 5</rect></_>
    <_>
      <rect>
        2 5 12 5</rect></_>
    <_>
      <rect>
        2 7 10 2</rect></_>
    <_>
      <rect>
        2 10 5 3</rect></_>
    <_>
      <rect>
        3 4 10 5</rect></_>
    <_>
      <rect>
        3 9 3 1</rect></_>
    <_>
      <rect>
        3 9 9 2</rect></_>
    <_>
      <rect>
        3 10 3 1</rect></_>
    <_>
      <rect>
        4 0 11 6</rect></_>
    <_>
      <rect>
        5 2 6 6</rect></_>
    <_>
      <rect>
        5 3 6 5</rect></_>
    <_>
      <rect>
        5 7 7 3</rect></_>
    <_>
      <rect>
        5 8 8 2</rect></_>
    <_>
      <rect>
        6 9 8 1</rect></_>
    <_>
      <rect>
        7 1 5 5</rect></_>
    <_>
      <rect>
        7 3 5 5</rect></_>
    <_>
      <rect>
        7 6 7 2</rect></_>
    <_>
      <rect>
        7 6 8 4</rect></_>
    <_>
      <rect>
        7 7 2 1</rect></_>
    <_>
      <rect>
        7 7 11 2</rect></_>
    <_>
      <rect>
        7 8 2 1</rect></_>
    <_>
      <rect>
        7 8 7 1</rect></_>
    <_>
      <rect>
        7 8 7 2</rect></_>
    <_>
      <rect>
        7 9 7 1</rect></_>
    <_>
      <rect>
        8 0 5 5</rect></_>
    <_>
      <rect>
        8 4 10 4</rect></_>
    <_>
      <rect>
        8 6 10 2</rect></_>
    <_>
      <rect>
        8 7 2 1</rect></_>
    <_>
      <rect>
        8 11 1 1</rect></_>
    <_>
      <rect>
        9 0 8 5</rect></_>
    <_>
      <rect>
        9 1 8 6</rect></_>
    <_>
      <rect>
        9 2 9 4</rect></_>
    <_>
      <rect>
        9 5 7 3</rect></_>
    <_>
      <rect>
        9 6 6 2</rect></_>
    <_>
      <rect>
        9 9 6 1</rect></_>
    <_>
      <rect>
        10 0 8 5</rect></_>
    <_>
      <rect>
        10 3 7 4</rect></_>
    <_>
      <rect>
        10 6 4 2</rect></_>
    <_>
      <rect>
        10 8 7 1</rect></_>
    <_>
      <rect>
        11 1 6 5</rect></_>
    <_>
      <rect>
        11 1 7 5</rect></_>
    <_>
      <rect>
        11 10 2 1</rect></_>
    <_>
      <rect>
        12 1 5 5</rect></_>
    <_>
      <rect>
        12 4 5 3</rect></_>
    <_>
      <rect>
        12 5 8 4</rect></_>
    <_>
      <rect>
        12 6 7 2</rect></_>
    <_>
      <rect>
        12 9 6 1</rect></_>
    <_>
      <rect>
        13 1 8 5</rect></_>
    <_>
      <rect>
        13 5 5 2</rect></_>
    <_>
      <rect>
        13 6 6 3</rect></_>
    <_>
      <rect>
        14 0 4 5</rect></_>
    <_>
      <rect>
        14 4 6 5</rect></_>
    <_>
      <rect>
        14 8 6 2</rect></_>
    <_>
      <rect>
        15 4 3 5</rect></_>
    <_>
      <rect>
        15 6 2 2</rect></_>
    <_>
      <rect>
        15 6 3 2</rect></_>
    <_>
      <rect>
        15 7 3 2</rect></_>
    <_>
      <rect>
        15 8 1 1</rect></_>
    <_>
      <rect>
        16 3 3 3</rect></_>
    <_>
      <rect>
        16 3 6 5</rect></_>
    <_>
      <rect>
        16 7 3 2</rect></_>
    <_>
      <rect>
        16 8 2 1</rect></_>
    <_>
      <rect>
        16 11 1 1</rect></_>
    <_>
      <rect>
        17 4 2 3</rect></_>
    <_>
      <rect>
        17 6 2 2</rect></_>
    <_>
      <rect>
        17 6 3 1</rect></_>
    <_>
      <rect>
        17 7 2 1</rect></_>
    <_>
      <rect>
        17 7 2 2</rect></_>
    <_>
      <rect>
        17 8 1 1</rect></_>
    <_>
      <rect>
        17 8 2 1</rect></_>
    <_>
      <rect>
        17 9 1 1</rect></_>
    <_>
      <rect>
        17 9 1 2</rect></_>
    <_>
      <rect>
        17 9 2 1</rect></_>
    <_>
      <rect>
        17 10 1 1</rect></_>
    <_>
      <rect>
        17 10 2 1</rect></_>
    <_>
      <rect>
        17 11 1 1</rect></_>
    <_>
      <rect>
        17 11 2 1</rect></_>
    <_>
      <rect>
        18 6 2 2</rect></_>
    <_>
      <rect>
        18 6 3 4</rect></_>
    <_>
      <rect>
        18 7 3 3</rect></_>
    <_>
      <rect>
        18 8 1 1</rect></_>
    <_>
      <rect>
        18 8 3 2</rect></_>
    <_>
      <rect>
        18 9 1 1</rect></_>
    <_>
      <rect>
        19 4 2 5</rect></_>
    <_>
      <rect>
        19 7 1 2</rect></_>
    <_>
      <rect>
        19 8 1 1</rect></_>
    <_>
      <rect>
        19 9 1 1</rect></_>
    <_>
      <rect>
        19 10 1 1</rect></_>
    <_>
      <rect>
        19 11 1 1</rect></_>
    <_>
      <rect>
        20 10 1 1</rect></_>
    <_>
      <rect>
        20 11 1 1</rect></_>
    <_>
      <rect>
        21 3 4 1</rect></_>
    <_>
      <rect>
        21 9 1 1</rect></_>
    <_>
      <rect>
        21 9 2 1</rect></_>
    <_>
      <rect>
        22 6 2 1</rect></_>
    <_>
      <rect>
        22 7 2 1</rect></_>
    <_>
      <rect>
        22 8 2 1</rect></_>
    <_>
      <rect>
        23 5 2 1</rect></_>
    <_>
      <rect>
        23 9 1 1</rect></_>
    <_>
      <rect>
        24 11 2 1</rect></_>
    <_>
      <rect>
        26 7 3 1</rect></_>
    <_>
      <rect>
        26 8 4 1</rect></_>
    <_>
      <rect>
        28 9 2 1</rect></_></features></cascade>
</opencv_storage>
