<?xml version="1.0"?>
<opencv_storage>
<stage9>
  <maxWeakCount>6</maxWeakCount>
  <stageThreshold>-1.6119358539581299e+00</stageThreshold>
  <weakClassifiers>
    <_>
      <internalNodes>
        0 -1 4339 535237624 -176298834 789906832 -1094770370 297861279
        -2101342274 -1734408483 2029705951</internalNodes>
      <leafValues>
        -7.6954734325408936e-01 3.3706817030906677e-01</leafValues></_>
    <_>
      <internalNodes>
        0 -1 13417 -1860562342 -36511716 352452809 1998291205
        -2111655256 -1177354236 436736171 -1684339510</internalNodes>
      <leafValues>
        -5.7815539836883545e-01 5.2068006992340088e-01</leafValues></_>
    <_>
      <internalNodes>
        0 -1 7458 1709270511 568567306 -1680041793 -974056819 808401130
        -1246025566 -1797248977 32958127</internalNodes>
      <leafValues>
        -8.1513231992721558e-01 3.8185214996337891e-01</leafValues></_>
    <_>
      <internalNodes>
        0 -1 14118 318771280 286261336 293618779 1427444995 -2013265400
        -1744629632 -1879017253 -1693838881</internalNodes>
      <leafValues>
        -5.9695476293563843e-01 5.3786993026733398e-01</leafValues></_>
    <_>
      <internalNodes>
        0 -1 11844 -754728213 1373700416 66176 1402310784 -796688212
        805306904 -435451510 -135597366</internalNodes>
      <leafValues>
        -5.3156805038452148e-01 6.4158684015274048e-01</leafValues></_>
    <_>
      <internalNodes>
        0 -1 13690 -15693582 -239533935 1375781235 -753777659
        -1877292926 -637497214 679551147 463016496</internalNodes>
      <leafValues>
        -6.2417793273925781e-01 5.4073029756546021e-01</leafValues></_></weakClassifiers></stage9>
</opencv_storage>
