<?xml version="1.0"?>
<opencv_storage>
<stage13>
  <maxWeakCount>8</maxWeakCount>
  <stageThreshold>-1.3071258068084717e+00</stageThreshold>
  <weakClassifiers>
    <_>
      <internalNodes>
        0 -1 12285 -541599023 -162049 2135811212 2103395397 -1863059977
        -83442672 -673594275 -15772664</internalNodes>
      <leafValues>
        -4.9521324038505554e-01 5.6682026386260986e-01</leafValues></_>
    <_>
      <internalNodes>
        0 -1 10889 -165731011 -1442496097 209856287 1881058443
        -1149259893 293667147 -1467643125 -795646466</internalNodes>
      <leafValues>
        -6.6269552707672119e-01 4.3113061785697937e-01</leafValues></_>
    <_>
      <internalNodes>
        0 -1 11403 -1286962518 -729382773 -1073086424 1410498689
        -1559254806 67141632 -1282698261 1183810186</internalNodes>
      <leafValues>
        -6.3181924819946289e-01 4.1938367486000061e-01</leafValues></_>
    <_>
      <internalNodes>
        0 -1 9789 1996248597 974816437 1577910669 2104339797 -88394682
        1935753236 2080421911 2080217149</internalNodes>
      <leafValues>
        -5.8836567401885986e-01 5.4318648576736450e-01</leafValues></_>
    <_>
      <internalNodes>
        0 -1 10408 -77007106 -1902068034 993324588 829530150 -241698904
        2138243069 968145338 -1146635734</internalNodes>
      <leafValues>
        -4.9495491385459900e-01 6.2372940778732300e-01</leafValues></_>
    <_>
      <internalNodes>
        0 -1 12140 -1818823205 269283329 84017427 164163871 1912758545
        -1173223424 -543602609 1034877726</internalNodes>
      <leafValues>
        -7.2306793928146362e-01 4.5906370878219604e-01</leafValues></_>
    <_>
      <internalNodes>
        0 -1 11427 1343787859 -939257782 272634011 1357914241 168993179
        -878181158 167910025 -547749751</internalNodes>
      <leafValues>
        -5.7103502750396729e-01 5.6908816099166870e-01</leafValues></_>
    <_>
      <internalNodes>
        0 -1 7080 -237939971 -209087515 200532991 1798108049 1079177983
        -13545442 -486640641 -271649377</internalNodes>
      <leafValues>
        -4.6713498234748840e-01 7.3674547672271729e-01</leafValues></_></weakClassifiers></stage13>
</opencv_storage>
