<?xml version="1.0"?>
<opencv_storage>
<stage18>
  <maxWeakCount>7</maxWeakCount>
  <stageThreshold>-9.3861538171768188e-01</stageThreshold>
  <weakClassifiers>
    <_>
      <internalNodes>
        0 -1 11379 -82069057 -723713189 1073841997 -255557497
        -1440631809 -728760139 -83852407 -1197358893</internalNodes>
      <leafValues>
        -5.7810944318771362e-01 4.7924527525901794e-01</leafValues></_>
    <_>
      <internalNodes>
        0 -1 6013 740144010 -1049263273 -2134695593 -1604779941
        -1426402561 -521207573 -2140961065 -1088716577</internalNodes>
      <leafValues>
        -7.4672615528106689e-01 3.2772216200828552e-01</leafValues></_>
    <_>
      <internalNodes>
        0 -1 13059 -967392610 -754941374 1610874899 -687320826
        -1574645037 -771162112 -1064781173 185303243</internalNodes>
      <leafValues>
        -6.4569026231765747e-01 3.9992755651473999e-01</leafValues></_>
    <_>
      <internalNodes>
        0 -1 5703 -1684359048 -180285376 -1810838253 894013464
        -1978672760 -1340600184 -1475595873 454469788</internalNodes>
      <leafValues>
        -5.6752437353134155e-01 5.0139993429183960e-01</leafValues></_>
    <_>
      <internalNodes>
        0 -1 12285 -706225935 2147209215 2135749773 1969046780 -9241121
        -109296622 -699306915 -3578739</internalNodes>
      <leafValues>
        -4.7991263866424561e-01 6.0461211204528809e-01</leafValues></_>
    <_>
      <internalNodes>
        0 -1 2033 -1726901677 1805093033 1976609426 -71726687 -268398161
        1250263322 -426231557 448653371</internalNodes>
      <leafValues>
        -5.7896143198013306e-01 5.1017880439758301e-01</leafValues></_>
    <_>
      <internalNodes>
        0 -1 2228 -2039564801 2015403121 402386666 1059577853 -25170305
        -1358975812 -721518626 -1347872468</internalNodes>
      <leafValues>
        -5.1911199092864990e-01 5.8116537332534790e-01</leafValues></_></weakClassifiers></stage18>
</opencv_storage>
