<?xml version="1.0"?>
<opencv_storage>
<stage5>
  <maxWeakCount>5</maxWeakCount>
  <stageThreshold>-9.1718256473541260e-01</stageThreshold>
  <weakClassifiers>
    <_>
      <internalNodes>
        0 -1 9328 -1626736961 -1623358017 -1917476883 -1244560989
        -1333709734 -43514261 -729293889 -708447813</internalNodes>
      <leafValues>
        -7.6249998807907104e-01 4.0999999642372131e-01</leafValues></_>
    <_>
      <internalNodes>
        0 -1 11403 -941169938 -134287738 -402723090 1416756800
        -1412455174 75531456 -134226485 -879759397</internalNodes>
      <leafValues>
        -5.1371741294860840e-01 6.7581760883331299e-01</leafValues></_>
    <_>
      <internalNodes>
        0 -1 4073 -559168774 -257689157 692203292 -183649985 601087967
        -987633217 1339069422 -419451106</internalNodes>
      <leafValues>
        -7.5973194837570190e-01 4.7267577052116394e-01</leafValues></_>
    <_>
      <internalNodes>
        0 -1 10353 1894443983 -138271602 -1190942305 1368933063
        -980703285 -181952438 -1853574237 -236281689</internalNodes>
      <leafValues>
        -7.0249593257904053e-01 4.7982257604598999e-01</leafValues></_>
    <_>
      <internalNodes>
        0 -1 11424 -487331077 -215240872 -521359652 -792458176
        -604054296 276903424 -353715286 -1684090742</internalNodes>
      <leafValues>
        -5.3355580568313599e-01 6.8744814395904541e-01</leafValues></_></weakClassifiers></stage5>
</opencv_storage>
