<?xml version="1.0"?>
<opencv_storage>
<stage14>
  <maxWeakCount>7</maxWeakCount>
  <stageThreshold>-1.1063561439514160e+00</stageThreshold>
  <weakClassifiers>
    <_>
      <internalNodes>
        0 -1 7679 -652912657 -1900416 345005149 494994757 625110184
        -721089773 321265035 730271744</internalNodes>
      <leafValues>
        -5.9741657972335815e-01 4.0757748484611511e-01</leafValues></_>
    <_>
      <internalNodes>
        0 -1 428 1486340475 -741737648 822983368 2071044424 -1790735475
        461865067 -870778738 2055059119</internalNodes>
      <leafValues>
        -5.6781309843063354e-01 4.8585540056228638e-01</leafValues></_>
    <_>
      <internalNodes>
        0 -1 6722 1430630513 -1477433181 627187855 1736661387 615081119
        1344487683 598378771 1978136979</internalNodes>
      <leafValues>
        -7.4603587388992310e-01 3.6179193854331970e-01</leafValues></_>
    <_>
      <internalNodes>
        0 -1 11404 -1878866794 -754546997 285221444 134906506
        -1068770678 557056 1124500110 -766797176</internalNodes>
      <leafValues>
        -5.1842820644378662e-01 5.7609188556671143e-01</leafValues></_>
    <_>
      <internalNodes>
        0 -1 14646 -180824878 -684987330 1970025085 293302807
        -1648834168 -1275275629 -1461659991 -625467137</internalNodes>
      <leafValues>
        -4.7750073671340942e-01 6.1645203828811646e-01</leafValues></_>
    <_>
      <internalNodes>
        0 -1 11327 -217390364 1429307536 -1996193776 356565018
        -519532487 -998162278 1644900747 387027362</internalNodes>
      <leafValues>
        -7.0138633251190186e-01 4.3624082207679749e-01</leafValues></_>
    <_>
      <internalNodes>
        0 -1 11765 -62457322 1541017856 -1609759737 -863207422 705528387
        -1067417597 -939282047 -200361846</internalNodes>
      <leafValues>
        -7.0511734485626221e-01 4.4990152120590210e-01</leafValues></_></weakClassifiers></stage14>
</opencv_storage>
