<?xml version="1.0"?>
<opencv_storage>
<stage16>
  <maxWeakCount>6</maxWeakCount>
  <stageThreshold>-6.1932164430618286e-01</stageThreshold>
  <weakClassifiers>
    <_>
      <internalNodes>
        0 -1 65 1890220250 864523659 -1726761717 -1985654525 -893691701
        -1353514353 -1827994805 -1073822837</internalNodes>
      <leafValues>
        -6.7892158031463623e-01 3.5975611209869385e-01</leafValues></_>
    <_>
      <internalNodes>
        0 -1 13770 -774868776 -616497016 17304995 -249753339 -1441746260
        -1736425438 2161050 -1415901016</internalNodes>
      <leafValues>
        -5.3919154405593872e-01 4.8993277549743652e-01</leafValues></_>
    <_>
      <internalNodes>
        0 -1 10349 -1831093933 -674323883 1074594000 1138198728
        -1993666047 -1065073374 195998465 317434827</internalNodes>
      <leafValues>
        -6.8518275022506714e-01 3.9790332317352295e-01</leafValues></_>
    <_>
      <internalNodes>
        0 -1 2959 285311338 -951967240 71322003 -578701920 -1862203141
        950997211 -1518270033 1995036937</internalNodes>
      <leafValues>
        -6.2020951509475708e-01 4.4768878817558289e-01</leafValues></_>
    <_>
      <internalNodes>
        0 -1 11256 1425945245 93487370 109062447 -800161001 -801151831
        -1601230840 -519428680 -52977498</internalNodes>
      <leafValues>
        -6.5527760982513428e-01 4.1249608993530273e-01</leafValues></_>
    <_>
      <internalNodes>
        0 -1 8764 656669389 -708770063 285375381 -774692830 -1272279784
        -1960705702 -1338788759 1814131630</internalNodes>
      <leafValues>
        -5.7611435651779175e-01 5.1288729906082153e-01</leafValues></_></weakClassifiers></stage16>
</opencv_storage>
