<?xml version="1.0"?>
<opencv_storage>
<stage8>
  <maxWeakCount>6</maxWeakCount>
  <stageThreshold>-1.3536739349365234e+00</stageThreshold>
  <weakClassifiers>
    <_>
      <internalNodes>
        0 -1 11445 -769 -658907700 -336057860 67110432 -1671504255
        -1995639832 -1678061878 -745830693</internalNodes>
      <leafValues>
        -5.1796668767929077e-01 5.9332323074340820e-01</leafValues></_>
    <_>
      <internalNodes>
        0 -1 10278 1003092699 1117110937 112432455 268817049 1343271771
        1537802817 2070727179 1408613115</internalNodes>
      <leafValues>
        -7.8909987211227417e-01 3.8523095846176147e-01</leafValues></_>
    <_>
      <internalNodes>
        0 -1 8732 1355814455 -753847275 492657939 -143584795 947513504
        -1087438065 -1041454913 -35290953</internalNodes>
      <leafValues>
        -6.0993492603302002e-01 5.1074492931365967e-01</leafValues></_>
    <_>
      <internalNodes>
        0 -1 11816 -739519034 290848834 34603008 1371570560 -1735876152
        939556864 -1962375650 1338671242</internalNodes>
      <leafValues>
        -7.5598973035812378e-01 4.6432697772979736e-01</leafValues></_>
    <_>
      <internalNodes>
        0 -1 6359 -795813832 -42791772 -1778601737 -549997452
        -1359026946 -84101553 777707263 -1656159875</internalNodes>
      <leafValues>
        -5.3529328107833862e-01 6.0487985610961914e-01</leafValues></_>
    <_>
      <internalNodes>
        0 -1 15177 -215287078 -1623459743 1878458239 826808657
        -1627604338 -1904227052 186185375 -1216378724</internalNodes>
      <leafValues>
        -4.7699603438377380e-01 7.1806365251541138e-01</leafValues></_></weakClassifiers></stage8>
</opencv_storage>
