<?xml version="1.0"?>
<opencv_storage>
<stage15>
  <maxWeakCount>7</maxWeakCount>
  <stageThreshold>-1.2052429914474487e+00</stageThreshold>
  <weakClassifiers>
    <_>
      <internalNodes>
        0 -1 342 -239389718 1401525000 679215474 -35950311 1519296646
        1353517295 -2035415625 -872706439</internalNodes>
      <leafValues>
        -7.7286136150360107e-01 2.8877004981040955e-01</leafValues></_>
    <_>
      <internalNodes>
        0 -1 10740 1658759226 -231625559 -736115101 -142356985
        1634708527 -351071435 -987489493 1973675139</internalNodes>
      <leafValues>
        -7.3061287403106689e-01 3.3043062686920166e-01</leafValues></_>
    <_>
      <internalNodes>
        0 -1 2940 1889318418 -682618816 138417269 -50179827 -994422357
        -888658822 -2145384200 -888659391</internalNodes>
      <leafValues>
        -5.3064173460006714e-01 5.1265758275985718e-01</leafValues></_>
    <_>
      <internalNodes>
        0 -1 6352 -1176018727 -539818183 -1047155328 1968298921
        -1221979320 -1935496475 1912621618 1554984591</internalNodes>
      <leafValues>
        -6.1305671930313110e-01 4.8035550117492676e-01</leafValues></_>
    <_>
      <internalNodes>
        0 -1 12327 -687689264 -641679156 16777692 1359184915 -1840338776
        1896480770 67152011 -548469666</internalNodes>
      <leafValues>
        -4.7262194752693176e-01 5.9934377670288086e-01</leafValues></_>
    <_>
      <internalNodes>
        0 -1 13393 -762955022 -750583538 1372209242 356732433
        -1417637712 -1195868024 1527367863 1610549400</internalNodes>
      <leafValues>
        -5.8586519956588745e-01 5.0167769193649292e-01</leafValues></_>
    <_>
      <internalNodes>
        0 -1 11352 -958520681 -12220415 1074335745 -863361339 1888143387
        -1200783355 -200834033 -1998523995</internalNodes>
      <leafValues>
        -6.6555738449096680e-01 4.8153728246688843e-01</leafValues></_></weakClassifiers></stage15>
</opencv_storage>
